<?xml version="1.0"?>
<opencv_storage>
<cascade>
  <stageType>BOOST</stageType>
  <featureType>HAAR</featureType>
  <height>30</height>
  <width>30</width>
  <stageParams>
    <boostType>GAB</boostType>
    <minHitRate>9.9900001287460327e-01</minHitRate>
    <maxFalseAlarm>3.0000001192092896e-01</maxFalseAlarm>
    <weightTrimRate>9.4999999999999996e-01</weightTrimRate>
    <maxDepth>1</maxDepth>
    <maxWeakCount>100</maxWeakCount></stageParams>
  <featureParams>
    <maxCatCount>0</maxCatCount>
    <featSize>1</featSize>
    <mode>BASIC</mode></featureParams>
  <stageNum>5</stageNum>
  <stages>
    <!-- stage 0 -->
    <_>
      <maxWeakCount>2</maxWeakCount>
      <stageThreshold>-2.2822135686874390e-01</stageThreshold>
      <weakClassifiers>
        <_>
          <internalNodes>
            0 -1 4 1.7871843278408051e-01</internalNodes>
          <leafValues>
            -9.7378766536712646e-01 8.4821891784667969e-01</leafValues></_>
        <_>
          <internalNodes>
            0 -1 17 1.7636579275131226e-01</internalNodes>
          <leafValues>
            -9.6915686130523682e-01 7.4556630849838257e-01</leafValues></_></weakClassifiers></_>
    <!-- stage 1 -->
    <_>
      <maxWeakCount>4</maxWeakCount>
      <stageThreshold>-4.4741207361221313e-01</stageThreshold>
      <weakClassifiers>
        <_>
          <internalNodes>
            0 -1 32 -3.6474891006946564e-02</internalNodes>
          <leafValues>
            7.7822989225387573e-01 -8.5831063985824585e-01</leafValues></_>
        <_>
          <internalNodes>
            0 -1 9 2.0689522847533226e-02</internalNodes>
          <leafValues>
            -8.2914513349533081e-01 6.8473172187805176e-01</leafValues></_>
        <_>
          <internalNodes>
            0 -1 19 -3.6225523799657822e-02</internalNodes>
          <leafValues>
            5.7945013046264648e-01 -7.8213590383529663e-01</leafValues></_>
        <_>
          <internalNodes>
            0 -1 15 -3.1072340905666351e-02</internalNodes>
          <leafValues>
            6.6059350967407227e-01 -7.2885769605636597e-01</leafValues></_></weakClassifiers></_>
    <!-- stage 2 -->
    <_>
      <maxWeakCount>7</maxWeakCount>
      <stageThreshold>-7.6184600591659546e-01</stageThreshold>
      <weakClassifiers>
        <_>
          <internalNodes>
            0 -1 33 -1.2166791595518589e-02</internalNodes>
          <leafValues>
            6.4125561714172363e-01 -7.8847807645797729e-01</leafValues></_>
        <_>
          <internalNodes>
            0 -1 1 1.2626442126929760e-02</internalNodes>
          <leafValues>
            -7.2111344337463379e-01 5.2660071849822998e-01</leafValues></_>
        <_>
          <internalNodes>
            0 -1 14 1.9889182876795530e-03</internalNodes>
          <leafValues>
            -6.4632028341293335e-01 5.3319239616394043e-01</leafValues></_>
        <_>
          <internalNodes>
            0 -1 2 1.9820907711982727e-01</internalNodes>
          <leafValues>
            -9.2966139316558838e-01 3.4617486596107483e-01</leafValues></_>
        <_>
          <internalNodes>
            0 -1 13 5.7823307812213898e-02</internalNodes>
          <leafValues>
            3.0260244011878967e-01 -9.3200659751892090e-01</leafValues></_>
        <_>
          <internalNodes>
            0 -1 16 5.0108816474676132e-02</internalNodes>
          <leafValues>
            -6.1681997776031494e-01 4.0587824583053589e-01</leafValues></_>
        <_>
          <internalNodes>
            0 -1 7 2.0119580626487732e-01</internalNodes>
          <leafValues>
            -8.1198036670684814e-01 3.4221747517585754e-01</leafValues></_></weakClassifiers></_>
    <!-- stage 3 -->
    <_>
      <maxWeakCount>11</maxWeakCount>
      <stageThreshold>-1.1298629045486450e+00</stageThreshold>
      <weakClassifiers>
        <_>
          <internalNodes>
            0 -1 17 1.8906813859939575e-01</internalNodes>
          <leafValues>
            -8.7995713949203491e-01 5.8674722909927368e-01</leafValues></_>
        <_>
          <internalNodes>
            0 -1 26 6.6163510084152222e-02</internalNodes>
          <leafValues>
            3.7650159001350403e-01 -9.3556803464889526e-01</leafValues></_>
        <_>
          <internalNodes>
            0 -1 25 -1.4439141377806664e-02</internalNodes>
          <leafValues>
            4.2679041624069214e-01 -5.7000434398651123e-01</leafValues></_>
        <_>
          <internalNodes>
            0 -1 30 -1.2202934361994267e-02</internalNodes>
          <leafValues>
            3.6897373199462891e-01 -6.3712263107299805e-01</leafValues></_>
        <_>
          <internalNodes>
            0 -1 6 -1.3750324025750160e-02</internalNodes>
          <leafValues>
            3.8708913326263428e-01 -6.4295393228530884e-01</leafValues></_>
        <_>
          <internalNodes>
            0 -1 0 -1.1794080026447773e-02</internalNodes>
          <leafValues>
            4.9985891580581665e-01 -4.9534291028976440e-01</leafValues></_>
        <_>
          <internalNodes>
            0 -1 21 -2.0929996389895678e-03</internalNodes>
          <leafValues>
            3.7732112407684326e-01 -5.9650319814682007e-01</leafValues></_>
        <_>
          <internalNodes>
            0 -1 35 -3.4617769997566938e-03</internalNodes>
          <leafValues>
            2.9841068387031555e-01 -6.4962536096572876e-01</leafValues></_>
        <_>
          <internalNodes>
            0 -1 28 -2.2613643668591976e-03</internalNodes>
          <leafValues>
            5.2202886343002319e-01 -3.8444533944129944e-01</leafValues></_>
        <_>
          <internalNodes>
            0 -1 5 1.7117774486541748e-01</internalNodes>
          <leafValues>
            -9.5038563013076782e-01 2.0613887906074524e-01</leafValues></_>
        <_>
          <internalNodes>
            0 -1 10 6.1314828693866730e-02</internalNodes>
          <leafValues>
            2.1549479663372040e-01 -9.1971886157989502e-01</leafValues></_></weakClassifiers></_>
    <!-- stage 4 -->
    <_>
      <maxWeakCount>13</maxWeakCount>
      <stageThreshold>-1.3445297479629517e+00</stageThreshold>
      <weakClassifiers>
        <_>
          <internalNodes>
            0 -1 12 2.0488190650939941e-01</internalNodes>
          <leafValues>
            -7.9143798351287842e-01 5.6159502267837524e-01</leafValues></_>
        <_>
          <internalNodes>
            0 -1 11 -1.3818890787661076e-02</internalNodes>
          <leafValues>
            5.7372081279754639e-01 -4.9159803986549377e-01</leafValues></_>
        <_>
          <internalNodes>
            0 -1 31 2.0301248878240585e-02</internalNodes>
          <leafValues>
            -5.5472892522811890e-01 4.5747357606887817e-01</leafValues></_>
        <_>
          <internalNodes>
            0 -1 8 4.4754318892955780e-02</internalNodes>
          <leafValues>
            -7.5494933128356934e-01 2.9960140585899353e-01</leafValues></_>
        <_>
          <internalNodes>
            0 -1 20 3.9504598826169968e-02</internalNodes>
          <leafValues>
            -7.0401692390441895e-01 2.3656170070171356e-01</leafValues></_>
        <_>
          <internalNodes>
            0 -1 18 4.9362005665898323e-03</internalNodes>
          <leafValues>
            -4.5227751135826111e-01 4.4315019249916077e-01</leafValues></_>
        <_>
          <internalNodes>
            0 -1 27 -3.8639470003545284e-03</internalNodes>
          <leafValues>
            5.6288224458694458e-01 -3.5809630155563354e-01</leafValues></_>
        <_>
          <internalNodes>
            0 -1 24 -1.8246199935674667e-02</internalNodes>
          <leafValues>
            -9.5401769876480103e-01 2.2153747081756592e-01</leafValues></_>
        <_>
          <internalNodes>
            0 -1 22 2.0664131268858910e-02</internalNodes>
          <leafValues>
            2.3674400150775909e-01 -8.0636823177337646e-01</leafValues></_>
        <_>
          <internalNodes>
            0 -1 3 -2.4730262812227011e-03</internalNodes>
          <leafValues>
            3.9981889724731445e-01 -4.4637584686279297e-01</leafValues></_>
        <_>
          <internalNodes>
            0 -1 29 -1.8684525042772293e-02</internalNodes>
          <leafValues>
            3.4675511717796326e-01 -5.8638173341751099e-01</leafValues></_>
        <_>
          <internalNodes>
            0 -1 34 -1.2181721627712250e-02</internalNodes>
          <leafValues>
            4.6117699146270752e-01 -4.0514510869979858e-01</leafValues></_>
        <_>
          <internalNodes>
            0 -1 23 -7.2101957630366087e-04</internalNodes>
          <leafValues>
            4.7020494937896729e-01 -3.4906989336013794e-01</leafValues></_></weakClassifiers></_></stages>
  <features>
    <_>
      <rects>
        <_>
          0 3 4 25 -1.</_>
        <_>
          2 3 2 25 2.</_></rects>
      <tilted>0</tilted></_>
    <_>
      <rects>
        <_>
          1 2 12 8 -1.</_>
        <_>
          1 2 6 4 2.</_>
        <_>
          7 6 6 4 2.</_></rects>
      <tilted>0</tilted></_>
    <_>
      <rects>
        <_>
          1 4 27 22 -1.</_>
        <_>
          10 4 9 22 3.</_></rects>
      <tilted>0</tilted></_>
    <_>
      <rects>
        <_>
          1 9 2 14 -1.</_>
        <_>
          2 9 1 14 2.</_></rects>
      <tilted>0</tilted></_>
    <_>
      <rects>
        <_>
          2 6 27 19 -1.</_>
        <_>
          11 6 9 19 3.</_></rects>
      <tilted>0</tilted></_>
    <_>
      <rects>
        <_>
          2 7 27 19 -1.</_>
        <_>
          11 7 9 19 3.</_></rects>
      <tilted>0</tilted></_>
    <_>
      <rects>
        <_>
          2 20 10 10 -1.</_>
        <_>
          2 20 5 5 2.</_>
        <_>
          7 25 5 5 2.</_></rects>
      <tilted>0</tilted></_>
    <_>
      <rects>
        <_>
          3 5 27 22 -1.</_>
        <_>
          12 5 9 22 3.</_></rects>
      <tilted>0</tilted></_>
    <_>
      <rects>
        <_>
          3 6 8 17 -1.</_>
        <_>
          7 6 4 17 2.</_></rects>
      <tilted>0</tilted></_>
    <_>
      <rects>
        <_>
          3 8 6 14 -1.</_>
        <_>
          6 8 3 14 2.</_></rects>
      <tilted>0</tilted></_>
    <_>
      <rects>
        <_>
          4 11 21 8 -1.</_>
        <_>
          11 11 7 8 3.</_></rects>
      <tilted>0</tilted></_>
    <_>
      <rects>
        <_>
          5 0 23 4 -1.</_>
        <_>
          5 2 23 2 2.</_></rects>
      <tilted>0</tilted></_>
    <_>
      <rects>
        <_>
          5 2 21 27 -1.</_>
        <_>
          5 11 21 9 3.</_></rects>
      <tilted>0</tilted></_>
    <_>
      <rects>
        <_>
          5 11 21 9 -1.</_>
        <_>
          12 11 7 9 3.</_></rects>
      <tilted>0</tilted></_>
    <_>
      <rects>
        <_>
          5 28 20 2 -1.</_>
        <_>
          5 29 20 1 2.</_></rects>
      <tilted>0</tilted></_>
    <_>
      <rects>
        <_>
          6 0 18 9 -1.</_>
        <_>
          6 3 18 3 3.</_></rects>
      <tilted>0</tilted></_>
    <_>
      <rects>
        <_>
          6 2 3 27 -1.</_>
        <_>
          6 11 3 9 3.</_></rects>
      <tilted>0</tilted></_>
    <_>
      <rects>
        <_>
          6 2 19 27 -1.</_>
        <_>
          6 11 19 9 3.</_></rects>
      <tilted>0</tilted></_>
    <_>
      <rects>
        <_>
          6 17 6 6 -1.</_>
        <_>
          6 17 3 3 2.</_>
        <_>
          9 20 3 3 2.</_></rects>
      <tilted>0</tilted></_>
    <_>
      <rects>
        <_>
          7 20 14 8 -1.</_>
        <_>
          7 24 14 4 2.</_></rects>
      <tilted>0</tilted></_>
    <_>
      <rects>
        <_>
          8 3 16 8 -1.</_>
        <_>
          8 7 16 4 2.</_></rects>
      <tilted>0</tilted></_>
    <_>
      <rects>
        <_>
          8 4 4 10 -1.</_>
        <_>
          8 4 2 5 2.</_>
        <_>
          10 9 2 5 2.</_></rects>
      <tilted>0</tilted></_>
    <_>
      <rects>
        <_>
          8 9 15 13 -1.</_>
        <_>
          13 9 5 13 3.</_></rects>
      <tilted>0</tilted></_>
    <_>
      <rects>
        <_>
          8 10 4 1 -1.</_>
        <_>
          10 10 2 1 2.</_></rects>
      <tilted>0</tilted></_>
    <_>
      <rects>
        <_>
          9 11 12 16 -1.</_>
        <_>
          13 11 4 16 3.</_></rects>
      <tilted>0</tilted></_>
    <_>
      <rects>
        <_>
          9 24 13 6 -1.</_>
        <_>
          9 26 13 2 3.</_></rects>
      <tilted>0</tilted></_>
    <_>
      <rects>
        <_>
          10 5 10 21 -1.</_>
        <_>
          10 12 10 7 3.</_></rects>
      <tilted>0</tilted></_>
    <_>
      <rects>
        <_>
          12 7 8 4 -1.</_>
        <_>
          12 9 8 2 2.</_></rects>
      <tilted>0</tilted></_>
    <_>
      <rects>
        <_>
          16 13 4 3 -1.</_>
        <_>
          18 13 2 3 2.</_></rects>
      <tilted>0</tilted></_>
    <_>
      <rects>
        <_>
          16 20 12 4 -1.</_>
        <_>
          22 20 6 4 2.</_></rects>
      <tilted>0</tilted></_>
    <_>
      <rects>
        <_>
          18 2 10 8 -1.</_>
        <_>
          18 2 5 4 2.</_>
        <_>
          23 6 5 4 2.</_></rects>
      <tilted>0</tilted></_>
    <_>
      <rects>
        <_>
          18 18 12 10 -1.</_>
        <_>
          18 18 6 5 2.</_>
        <_>
          24 23 6 5 2.</_></rects>
      <tilted>0</tilted></_>
    <_>
      <rects>
        <_>
          20 9 8 14 -1.</_>
        <_>
          24 9 4 14 2.</_></rects>
      <tilted>0</tilted></_>
    <_>
      <rects>
        <_>
          21 1 8 14 -1.</_>
        <_>
          21 1 4 7 2.</_>
        <_>
          25 8 4 7 2.</_></rects>
      <tilted>0</tilted></_>
    <_>
      <rects>
        <_>
          24 11 6 6 -1.</_>
        <_>
          26 11 2 6 3.</_></rects>
      <tilted>0</tilted></_>
    <_>
      <rects>
        <_>
          24 14 6 6 -1.</_>
        <_>
          26 14 2 6 3.</_></rects>
      <tilted>0</tilted></_></features></cascade>
</opencv_storage>
