<?xml version="1.0"?>
<opencv_storage>
<cascade>
  <stageType>BOOST</stageType>
  <featureType>HAAR</featureType>
  <height>20</height>
  <width>20</width>
  <stageParams>
    <boostType>GAB</boostType>
    <minHitRate>9.9900001287460327e-01</minHitRate>
    <maxFalseAlarm>1.0000000149011612e-01</maxFalseAlarm>
    <weightTrimRate>9.4999999999999996e-01</weightTrimRate>
    <maxDepth>1</maxDepth>
    <maxWeakCount>100</maxWeakCount></stageParams>
  <featureParams>
    <maxCatCount>0</maxCatCount>
    <featSize>1</featSize>
    <mode>BASIC</mode></featureParams>
  <stageNum>5</stageNum>
  <stages>
    <!-- stage 0 -->
    <_>
      <maxWeakCount>11</maxWeakCount>
      <stageThreshold>-1.6150881052017212e+00</stageThreshold>
      <weakClassifiers>
        <_>
          <internalNodes>
            0 -1 5 4.3745614588260651e-02</internalNodes>
          <leafValues>
            -7.4099320173263550e-01 5.5179703235626221e-01</leafValues></_>
        <_>
          <internalNodes>
            0 -1 68 6.4207622781395912e-03</internalNodes>
          <leafValues>
            -7.1959608793258667e-01 5.9570980072021484e-01</leafValues></_>
        <_>
          <internalNodes>
            0 -1 8 -2.2683210670948029e-02</internalNodes>
          <leafValues>
            5.3914368152618408e-01 -7.5363385677337646e-01</leafValues></_>
        <_>
          <internalNodes>
            0 -1 60 -1.0373198427259922e-02</internalNodes>
          <leafValues>
            4.4272020459175110e-01 -8.4892165660858154e-01</leafValues></_>
        <_>
          <internalNodes>
            0 -1 35 -1.0478969663381577e-02</internalNodes>
          <leafValues>
            6.7288815975189209e-01 -5.3144651651382446e-01</leafValues></_>
        <_>
          <internalNodes>
            0 -1 54 9.7089577466249466e-03</internalNodes>
          <leafValues>
            -7.1999108791351318e-01 4.7509330511093140e-01</leafValues></_>
        <_>
          <internalNodes>
            0 -1 13 -8.9699029922485352e-03</internalNodes>
          <leafValues>
            4.5960080623626709e-01 -7.2913622856140137e-01</leafValues></_>
        <_>
          <internalNodes>
            0 -1 0 6.5764999017119408e-03</internalNodes>
          <leafValues>
            -7.2450298070907593e-01 4.9863010644912720e-01</leafValues></_>
        <_>
          <internalNodes>
            0 -1 62 -1.4964156784117222e-02</internalNodes>
          <leafValues>
            5.6126046180725098e-01 -5.3991466760635376e-01</leafValues></_>
        <_>
          <internalNodes>
            0 -1 70 6.3927355222404003e-03</internalNodes>
          <leafValues>
            -5.6131130456924438e-01 5.1639187335968018e-01</leafValues></_>
        <_>
          <internalNodes>
            0 -1 31 -6.6219363361597061e-03</internalNodes>
          <leafValues>
            3.7983587384223938e-01 -7.2336745262145996e-01</leafValues></_></weakClassifiers></_>
    <!-- stage 1 -->
    <_>
      <maxWeakCount>13</maxWeakCount>
      <stageThreshold>-1.2846474647521973e+00</stageThreshold>
      <weakClassifiers>
        <_>
          <internalNodes>
            0 -1 2 1.6671488061547279e-02</internalNodes>
          <leafValues>
            -6.6513395309448242e-01 4.4374305009841919e-01</leafValues></_>
        <_>
          <internalNodes>
            0 -1 50 2.1708831191062927e-02</internalNodes>
          <leafValues>
            -5.0846403837203979e-01 6.4045661687850952e-01</leafValues></_>
        <_>
          <internalNodes>
            0 -1 32 3.3685233443975449e-02</internalNodes>
          <leafValues>
            -9.1598361730575562e-01 3.2013812661170959e-01</leafValues></_>
        <_>
          <internalNodes>
            0 -1 46 5.6965323165059090e-03</internalNodes>
          <leafValues>
            -5.7741433382034302e-01 4.8032262921333313e-01</leafValues></_>
        <_>
          <internalNodes>
            0 -1 15 -2.6514666154980659e-02</internalNodes>
          <leafValues>
            6.8721753358840942e-01 -4.4749182462692261e-01</leafValues></_>
        <_>
          <internalNodes>
            0 -1 85 -1.1354061774909496e-02</internalNodes>
          <leafValues>
            6.3224452733993530e-01 -4.1643762588500977e-01</leafValues></_>
        <_>
          <internalNodes>
            0 -1 65 -5.8063273318111897e-03</internalNodes>
          <leafValues>
            4.9264016747474670e-01 -5.2727460861206055e-01</leafValues></_>
        <_>
          <internalNodes>
            0 -1 57 7.2068991139531136e-03</internalNodes>
          <leafValues>
            -9.1432398557662964e-01 2.8114300966262817e-01</leafValues></_>
        <_>
          <internalNodes>
            0 -1 24 -1.9385460764169693e-02</internalNodes>
          <leafValues>
            5.8455121517181396e-01 -4.6476700901985168e-01</leafValues></_>
        <_>
          <internalNodes>
            0 -1 58 5.5138114839792252e-03</internalNodes>
          <leafValues>
            3.0775752663612366e-01 -9.0781211853027344e-01</leafValues></_>
        <_>
          <internalNodes>
            0 -1 29 3.3694133162498474e-02</internalNodes>
          <leafValues>
            -4.7269797325134277e-01 5.4295283555984497e-01</leafValues></_>
        <_>
          <internalNodes>
            0 -1 48 9.0176612138748169e-03</internalNodes>
          <leafValues>
            -4.4392707943916321e-01 5.7864630222320557e-01</leafValues></_>
        <_>
          <internalNodes>
            0 -1 37 1.3097959570586681e-02</internalNodes>
          <leafValues>
            -6.1857968568801880e-01 3.5368305444717407e-01</leafValues></_></weakClassifiers></_>
    <!-- stage 2 -->
    <_>
      <maxWeakCount>18</maxWeakCount>
      <stageThreshold>-1.1485729217529297e+00</stageThreshold>
      <weakClassifiers>
        <_>
          <internalNodes>
            0 -1 12 -5.4730765521526337e-02</internalNodes>
          <leafValues>
            2.2582402825355530e-01 -7.1852129697799683e-01</leafValues></_>
        <_>
          <internalNodes>
            0 -1 39 -1.2586002238094807e-02</internalNodes>
          <leafValues>
            4.8067042231559753e-01 -5.2330207824707031e-01</leafValues></_>
        <_>
          <internalNodes>
            0 -1 19 -4.1860610246658325e-02</internalNodes>
          <leafValues>
            3.8491162657737732e-01 -6.1507272720336914e-01</leafValues></_>
        <_>
          <internalNodes>
            0 -1 3 3.8321085274219513e-02</internalNodes>
          <leafValues>
            -4.8713171482086182e-01 4.9018922448158264e-01</leafValues></_>
        <_>
          <internalNodes>
            0 -1 79 -5.5152422282844782e-04</internalNodes>
          <leafValues>
            -8.0068647861480713e-01 2.9320287704467773e-01</leafValues></_>
        <_>
          <internalNodes>
            0 -1 34 -5.4227728396654129e-03</internalNodes>
          <leafValues>
            6.7626756429672241e-01 -3.4522253274917603e-01</leafValues></_>
        <_>
          <internalNodes>
            0 -1 4 2.5399024598300457e-03</internalNodes>
          <leafValues>
            -5.4243147373199463e-01 3.6685347557067871e-01</leafValues></_>
        <_>
          <internalNodes>
            0 -1 17 1.3577597215771675e-02</internalNodes>
          <leafValues>
            -3.7220498919487000e-01 5.2898901700973511e-01</leafValues></_>
        <_>
          <internalNodes>
            0 -1 42 3.6905363667756319e-03</internalNodes>
          <leafValues>
            -6.5482813119888306e-01 3.0446952581405640e-01</leafValues></_>
        <_>
          <internalNodes>
            0 -1 70 9.9445106461644173e-03</internalNodes>
          <leafValues>
            -4.5943209528923035e-01 4.3615669012069702e-01</leafValues></_>
        <_>
          <internalNodes>
            0 -1 21 2.0918183028697968e-02</internalNodes>
          <leafValues>
            -5.7063204050064087e-01 4.1736847162246704e-01</leafValues></_>
        <_>
          <internalNodes>
            0 -1 27 3.8248430937528610e-03</internalNodes>
          <leafValues>
            -4.6986418962478638e-01 4.5624718070030212e-01</leafValues></_>
        <_>
          <internalNodes>
            0 -1 47 -7.3474179953336716e-03</internalNodes>
          <leafValues>
            3.3201995491981506e-01 -5.7506674528121948e-01</leafValues></_>
        <_>
          <internalNodes>
            0 -1 33 -9.1862305998802185e-03</internalNodes>
          <leafValues>
            -8.6317747831344604e-01 2.2271524369716644e-01</leafValues></_>
        <_>
          <internalNodes>
            0 -1 80 -3.0320123187266290e-04</internalNodes>
          <leafValues>
            -7.0487189292907715e-01 2.0941154658794403e-01</leafValues></_>
        <_>
          <internalNodes>
            0 -1 72 1.4407726121135056e-04</internalNodes>
          <leafValues>
            1.9997318089008331e-01 -7.3384976387023926e-01</leafValues></_>
        <_>
          <internalNodes>
            0 -1 25 -6.8171117454767227e-03</internalNodes>
          <leafValues>
            -8.2199198007583618e-01 1.9089245796203613e-01</leafValues></_>
        <_>
          <internalNodes>
            0 -1 20 -5.9847980737686157e-02</internalNodes>
          <leafValues>
            3.1315407156944275e-01 -5.4152959585189819e-01</leafValues></_></weakClassifiers></_>
    <!-- stage 3 -->
    <_>
      <maxWeakCount>23</maxWeakCount>
      <stageThreshold>-1.6207643747329712e+00</stageThreshold>
      <weakClassifiers>
        <_>
          <internalNodes>
            0 -1 53 7.1538281626999378e-03</internalNodes>
          <leafValues>
            -7.0129871368408203e-01 5.4794520139694214e-02</leafValues></_>
        <_>
          <internalNodes>
            0 -1 16 4.2470777407288551e-03</internalNodes>
          <leafValues>
            -6.2873661518096924e-01 2.2974714636802673e-01</leafValues></_>
        <_>
          <internalNodes>
            0 -1 38 3.3876639790832996e-03</internalNodes>
          <leafValues>
            -7.6347124576568604e-01 2.0439778268337250e-01</leafValues></_>
        <_>
          <internalNodes>
            0 -1 36 -7.7488170936703682e-03</internalNodes>
          <leafValues>
            2.2397528588771820e-01 -8.4546893835067749e-01</leafValues></_>
        <_>
          <internalNodes>
            0 -1 61 1.5204597730189562e-03</internalNodes>
          <leafValues>
            -7.4868953227996826e-01 2.2458098828792572e-01</leafValues></_>
        <_>
          <internalNodes>
            0 -1 86 -9.7528845071792603e-03</internalNodes>
          <leafValues>
            4.1333276033401489e-01 -4.1356825828552246e-01</leafValues></_>
        <_>
          <internalNodes>
            0 -1 52 3.7948172539472580e-03</internalNodes>
          <leafValues>
            2.2817550599575043e-01 -7.4200600385665894e-01</leafValues></_>
        <_>
          <internalNodes>
            0 -1 78 -1.5010332572273910e-04</internalNodes>
          <leafValues>
            -6.7392909526824951e-01 2.2268228232860565e-01</leafValues></_>
        <_>
          <internalNodes>
            0 -1 64 -7.2940378449857235e-03</internalNodes>
          <leafValues>
            -6.2651437520980835e-01 2.4192357063293457e-01</leafValues></_>
        <_>
          <internalNodes>
            0 -1 81 -1.1113996151834726e-04</internalNodes>
          <leafValues>
            -7.0983225107192993e-01 2.4398359656333923e-01</leafValues></_>
        <_>
          <internalNodes>
            0 -1 82 -1.0641640983521938e-04</internalNodes>
          <leafValues>
            -7.5512105226516724e-01 1.7157617211341858e-01</leafValues></_>
        <_>
          <internalNodes>
            0 -1 66 5.3243916481733322e-03</internalNodes>
          <leafValues>
            1.7104940116405487e-01 -8.6511158943176270e-01</leafValues></_>
        <_>
          <internalNodes>
            0 -1 49 -2.1777847781777382e-02</internalNodes>
          <leafValues>
            5.2042669057846069e-01 -3.1595373153686523e-01</leafValues></_>
        <_>
          <internalNodes>
            0 -1 14 -6.7137107253074646e-03</internalNodes>
          <leafValues>
            2.3271194100379944e-01 -7.2785401344299316e-01</leafValues></_>
        <_>
          <internalNodes>
            0 -1 44 3.5664081573486328e-02</internalNodes>
          <leafValues>
            -3.5849776864051819e-01 4.4386711716651917e-01</leafValues></_>
        <_>
          <internalNodes>
            0 -1 67 -2.5912956334650517e-03</internalNodes>
          <leafValues>
            6.3929575681686401e-01 -2.5899448990821838e-01</leafValues></_>
        <_>
          <internalNodes>
            0 -1 71 -3.7039315793663263e-04</internalNodes>
          <leafValues>
            -7.0145654678344727e-01 2.3816250264644623e-01</leafValues></_>
        <_>
          <internalNodes>
            0 -1 22 3.5630157217383385e-03</internalNodes>
          <leafValues>
            -2.2730174660682678e-01 7.3222941160202026e-01</leafValues></_>
        <_>
          <internalNodes>
            0 -1 30 1.5079321339726448e-02</internalNodes>
          <leafValues>
            1.9846393167972565e-01 -8.4370958805084229e-01</leafValues></_>
        <_>
          <internalNodes>
            0 -1 18 2.1617744117975235e-02</internalNodes>
          <leafValues>
            1.3502143323421478e-01 -9.2617583274841309e-01</leafValues></_>
        <_>
          <internalNodes>
            0 -1 45 3.7655050400644541e-03</internalNodes>
          <leafValues>
            -4.3992021679878235e-01 3.4179088473320007e-01</leafValues></_>
        <_>
          <internalNodes>
            0 -1 56 -1.9840020686388016e-02</internalNodes>
          <leafValues>
            -9.1118967533111572e-01 1.4987234771251678e-01</leafValues></_>
        <_>
          <internalNodes>
            0 -1 59 6.3629113137722015e-03</internalNodes>
          <leafValues>
            1.4825771749019623e-01 -7.9210245609283447e-01</leafValues></_></weakClassifiers></_>
    <!-- stage 4 -->
    <_>
      <maxWeakCount>23</maxWeakCount>
      <stageThreshold>-1.2236145734786987e+00</stageThreshold>
      <weakClassifiers>
        <_>
          <internalNodes>
            0 -1 1 1.9480004906654358e-02</internalNodes>
          <leafValues>
            -5.8327692747116089e-01 1.4424321055412292e-01</leafValues></_>
        <_>
          <internalNodes>
            0 -1 41 1.8960528075695038e-02</internalNodes>
          <leafValues>
            1.5109053254127502e-01 -8.2164579629898071e-01</leafValues></_>
        <_>
          <internalNodes>
            0 -1 51 -9.9817300215363503e-03</internalNodes>
          <leafValues>
            1.4843538403511047e-01 -8.0713647603988647e-01</leafValues></_>
        <_>
          <internalNodes>
            0 -1 11 -3.5875366302207112e-04</internalNodes>
          <leafValues>
            -5.7275831699371338e-01 2.2677135467529297e-01</leafValues></_>
        <_>
          <internalNodes>
            0 -1 55 9.4554796814918518e-03</internalNodes>
          <leafValues>
            -3.2664042711257935e-01 4.1837486624717712e-01</leafValues></_>
        <_>
          <internalNodes>
            0 -1 83 -1.4187592023517936e-04</internalNodes>
          <leafValues>
            -6.0384249687194824e-01 2.2625488042831421e-01</leafValues></_>
        <_>
          <internalNodes>
            0 -1 73 -1.6121072985697538e-04</internalNodes>
          <leafValues>
            -6.5827977657318115e-01 2.1067342162132263e-01</leafValues></_>
        <_>
          <internalNodes>
            0 -1 9 2.8308207402005792e-04</internalNodes>
          <leafValues>
            2.0765689015388489e-01 -5.9244757890701294e-01</leafValues></_>
        <_>
          <internalNodes>
            0 -1 74 1.0591307363938540e-04</internalNodes>
          <leafValues>
            2.2584964334964752e-01 -5.7231718301773071e-01</leafValues></_>
        <_>
          <internalNodes>
            0 -1 76 -1.4526629820466042e-04</internalNodes>
          <leafValues>
            -6.6762781143188477e-01 2.3124341666698456e-01</leafValues></_>
        <_>
          <internalNodes>
            0 -1 84 -1.0043907968793064e-04</internalNodes>
          <leafValues>
            -5.2462059259414673e-01 2.3355208337306976e-01</leafValues></_>
        <_>
          <internalNodes>
            0 -1 6 -1.5826609730720520e-01</internalNodes>
          <leafValues>
            4.7803488373756409e-01 -3.4562298655509949e-01</leafValues></_>
        <_>
          <internalNodes>
            0 -1 63 5.9704142622649670e-03</internalNodes>
          <leafValues>
            -4.8717150092124939e-01 3.1602913141250610e-01</leafValues></_>
        <_>
          <internalNodes>
            0 -1 23 2.1853926591575146e-03</internalNodes>
          <leafValues>
            -2.7719601988792419e-01 5.5188167095184326e-01</leafValues></_>
        <_>
          <internalNodes>
            0 -1 69 -1.9642007537186146e-03</internalNodes>
          <leafValues>
            -7.6718771457672119e-01 1.8579307198524475e-01</leafValues></_>
        <_>
          <internalNodes>
            0 -1 43 -1.6497882083058357e-02</internalNodes>
          <leafValues>
            -7.0149695873260498e-01 1.8239900469779968e-01</leafValues></_>
        <_>
          <internalNodes>
            0 -1 40 2.2665807977318764e-02</internalNodes>
          <leafValues>
            -3.1297838687896729e-01 4.4305261969566345e-01</leafValues></_>
        <_>
          <internalNodes>
            0 -1 7 -5.4200824350118637e-02</internalNodes>
          <leafValues>
            3.3525019884109497e-01 -4.4636437296867371e-01</leafValues></_>
        <_>
          <internalNodes>
            0 -1 77 -2.7293816674500704e-04</internalNodes>
          <leafValues>
            -5.7790672779083252e-01 2.3440995812416077e-01</leafValues></_>
        <_>
          <internalNodes>
            0 -1 75 5.6869164836825803e-05</internalNodes>
          <leafValues>
            2.8242728114128113e-01 -4.9356546998023987e-01</leafValues></_>
        <_>
          <internalNodes>
            0 -1 28 1.8824617145583034e-03</internalNodes>
          <leafValues>
            -2.5832232832908630e-01 5.7799214124679565e-01</leafValues></_>
        <_>
          <internalNodes>
            0 -1 26 5.2415430545806885e-03</internalNodes>
          <leafValues>
            -3.6425969004631042e-01 3.8552993535995483e-01</leafValues></_>
        <_>
          <internalNodes>
            0 -1 10 8.3217294886708260e-03</internalNodes>
          <leafValues>
            -3.3333671092987061e-01 4.1827243566513062e-01</leafValues></_></weakClassifiers></_></stages>
  <features>
    <_>
      <rects>
        <_>
          0 3 6 3 -1.</_>
        <_>
          3 3 3 3 2.</_></rects>
      <tilted>0</tilted></_>
    <_>
      <rects>
        <_>
          0 5 2 11 -1.</_>
        <_>
          1 5 1 11 2.</_></rects>
      <tilted>0</tilted></_>
    <_>
      <rects>
        <_>
          0 5 2 12 -1.</_>
        <_>
          1 5 1 12 2.</_></rects>
      <tilted>0</tilted></_>
    <_>
      <rects>
        <_>
          0 8 6 6 -1.</_>
        <_>
          2 8 2 6 3.</_></rects>
      <tilted>0</tilted></_>
    <_>
      <rects>
        <_>
          0 15 6 2 -1.</_>
        <_>
          3 15 3 2 2.</_></rects>
      <tilted>0</tilted></_>
    <_>
      <rects>
        <_>
          2 0 17 4 -1.</_>
        <_>
          2 2 17 2 2.</_></rects>
      <tilted>0</tilted></_>
    <_>
      <rects>
        <_>
          2 3 18 15 -1.</_>
        <_>
          2 8 18 5 3.</_></rects>
      <tilted>0</tilted></_>
    <_>
      <rects>
        <_>
          2 4 12 16 -1.</_>
        <_>
          8 4 6 16 2.</_></rects>
      <tilted>0</tilted></_>
    <_>
      <rects>
        <_>
          2 5 15 2 -1.</_>
        <_>
          7 5 5 2 3.</_></rects>
      <tilted>0</tilted></_>
    <_>
      <rects>
        <_>
          2 15 3 2 -1.</_>
        <_>
          2 16 3 1 2.</_></rects>
      <tilted>0</tilted></_>
    <_>
      <rects>
        <_>
          2 16 12 2 -1.</_>
        <_>
          2 16 6 1 2.</_>
        <_>
          8 17 6 1 2.</_></rects>
      <tilted>0</tilted></_>
    <_>
      <rects>
        <_>
          3 2 4 3 -1.</_>
        <_>
          5 2 2 3 2.</_></rects>
      <tilted>0</tilted></_>
    <_>
      <rects>
        <_>
          3 3 10 15 -1.</_>
        <_>
          8 3 5 15 2.</_></rects>
      <tilted>0</tilted></_>
    <_>
      <rects>
        <_>
          3 7 4 8 -1.</_>
        <_>
          5 7 2 8 2.</_></rects>
      <tilted>0</tilted></_>
    <_>
      <rects>
        <_>
          3 7 4 9 -1.</_>
        <_>
          5 7 2 9 2.</_></rects>
      <tilted>0</tilted></_>
    <_>
      <rects>
        <_>
          3 9 6 3 -1.</_>
        <_>
          5 9 2 3 3.</_></rects>
      <tilted>0</tilted></_>
    <_>
      <rects>
        <_>
          4 0 2 6 -1.</_>
        <_>
          4 3 2 3 2.</_></rects>
      <tilted>0</tilted></_>
    <_>
      <rects>
        <_>
          4 0 13 2 -1.</_>
        <_>
          4 1 13 1 2.</_></rects>
      <tilted>0</tilted></_>
    <_>
      <rects>
        <_>
          4 2 6 8 -1.</_>
        <_>
          6 2 2 8 3.</_></rects>
      <tilted>0</tilted></_>
    <_>
      <rects>
        <_>
          4 3 13 10 -1.</_>
        <_>
          4 8 13 5 2.</_></rects>
      <tilted>0</tilted></_>
    <_>
      <rects>
        <_>
          4 3 13 12 -1.</_>
        <_>
          4 9 13 6 2.</_></rects>
      <tilted>0</tilted></_>
    <_>
      <rects>
        <_>
          4 9 14 8 -1.</_>
        <_>
          4 13 14 4 2.</_></rects>
      <tilted>0</tilted></_>
    <_>
      <rects>
        <_>
          4 10 2 2 -1.</_>
        <_>
          4 10 1 1 2.</_>
        <_>
          5 11 1 1 2.</_></rects>
      <tilted>0</tilted></_>
    <_>
      <rects>
        <_>
          4 12 3 1 -1.</_>
        <_>
          5 12 1 1 3.</_></rects>
      <tilted>0</tilted></_>
    <_>
      <rects>
        <_>
          5 4 5 4 -1.</_>
        <_>
          5 6 5 2 2.</_></rects>
      <tilted>0</tilted></_>
    <_>
      <rects>
        <_>
          5 8 8 4 -1.</_>
        <_>
          5 8 4 2 2.</_>
        <_>
          9 10 4 2 2.</_></rects>
      <tilted>0</tilted></_>
    <_>
      <rects>
        <_>
          5 9 4 2 -1.</_>
        <_>
          7 9 2 2 2.</_></rects>
      <tilted>0</tilted></_>
    <_>
      <rects>
        <_>
          5 10 6 1 -1.</_>
        <_>
          7 10 2 1 3.</_></rects>
      <tilted>0</tilted></_>
    <_>
      <rects>
        <_>
          5 11 2 2 -1.</_>
        <_>
          5 11 1 1 2.</_>
        <_>
          6 12 1 1 2.</_></rects>
      <tilted>0</tilted></_>
    <_>
      <rects>
        <_>
          6 0 6 6 -1.</_>
        <_>
          6 2 6 2 3.</_></rects>
      <tilted>0</tilted></_>
    <_>
      <rects>
        <_>
          6 1 6 8 -1.</_>
        <_>
          8 1 2 8 3.</_></rects>
      <tilted>0</tilted></_>
    <_>
      <rects>
        <_>
          6 3 7 4 -1.</_>
        <_>
          6 5 7 2 2.</_></rects>
      <tilted>0</tilted></_>
    <_>
      <rects>
        <_>
          6 4 12 11 -1.</_>
        <_>
          12 4 6 11 2.</_></rects>
      <tilted>0</tilted></_>
    <_>
      <rects>
        <_>
          6 5 10 8 -1.</_>
        <_>
          11 5 5 8 2.</_></rects>
      <tilted>0</tilted></_>
    <_>
      <rects>
        <_>
          6 14 4 2 -1.</_>
        <_>
          6 14 2 1 2.</_>
        <_>
          8 15 2 1 2.</_></rects>
      <tilted>0</tilted></_>
    <_>
      <rects>
        <_>
          6 18 9 2 -1.</_>
        <_>
          6 19 9 1 2.</_></rects>
      <tilted>0</tilted></_>
    <_>
      <rects>
        <_>
          7 2 6 9 -1.</_>
        <_>
          7 5 6 3 3.</_></rects>
      <tilted>0</tilted></_>
    <_>
      <rects>
        <_>
          7 6 6 9 -1.</_>
        <_>
          7 9 6 3 3.</_></rects>
      <tilted>0</tilted></_>
    <_>
      <rects>
        <_>
          7 14 8 4 -1.</_>
        <_>
          7 16 8 2 2.</_></rects>
      <tilted>0</tilted></_>
    <_>
      <rects>
        <_>
          7 18 10 2 -1.</_>
        <_>
          7 19 10 1 2.</_></rects>
      <tilted>0</tilted></_>
    <_>
      <rects>
        <_>
          8 0 2 6 -1.</_>
        <_>
          8 2 2 2 3.</_></rects>
      <tilted>0</tilted></_>
    <_>
      <rects>
        <_>
          8 1 6 18 -1.</_>
        <_>
          10 1 2 18 3.</_></rects>
      <tilted>0</tilted></_>
    <_>
      <rects>
        <_>
          8 9 5 6 -1.</_>
        <_>
          8 11 5 2 3.</_></rects>
      <tilted>0</tilted></_>
    <_>
      <rects>
        <_>
          8 11 6 7 -1.</_>
        <_>
          10 11 2 7 3.</_></rects>
      <tilted>0</tilted></_>
    <_>
      <rects>
        <_>
          9 0 11 4 -1.</_>
        <_>
          9 2 11 2 2.</_></rects>
      <tilted>0</tilted></_>
    <_>
      <rects>
        <_>
          9 5 1 6 -1.</_>
        <_>
          9 7 1 2 3.</_></rects>
      <tilted>0</tilted></_>
    <_>
      <rects>
        <_>
          9 5 2 6 -1.</_>
        <_>
          9 7 2 2 3.</_></rects>
      <tilted>0</tilted></_>
    <_>
      <rects>
        <_>
          9 5 6 4 -1.</_>
        <_>
          9 5 3 2 2.</_>
        <_>
          12 7 3 2 2.</_></rects>
      <tilted>0</tilted></_>
    <_>
      <rects>
        <_>
          9 10 3 6 -1.</_>
        <_>
          9 12 3 2 3.</_></rects>
      <tilted>0</tilted></_>
    <_>
      <rects>
        <_>
          9 12 2 6 -1.</_>
        <_>
          9 14 2 2 3.</_></rects>
      <tilted>0</tilted></_>
    <_>
      <rects>
        <_>
          9 14 3 6 -1.</_>
        <_>
          9 16 3 2 3.</_></rects>
      <tilted>0</tilted></_>
    <_>
      <rects>
        <_>
          10 7 9 6 -1.</_>
        <_>
          13 7 3 6 3.</_></rects>
      <tilted>0</tilted></_>
    <_>
      <rects>
        <_>
          10 8 6 4 -1.</_>
        <_>
          13 8 3 4 2.</_></rects>
      <tilted>0</tilted></_>
    <_>
      <rects>
        <_>
          10 9 6 2 -1.</_>
        <_>
          12 9 2 2 3.</_></rects>
      <tilted>0</tilted></_>
    <_>
      <rects>
        <_>
          10 9 6 8 -1.</_>
        <_>
          10 9 3 4 2.</_>
        <_>
          13 13 3 4 2.</_></rects>
      <tilted>0</tilted></_>
    <_>
      <rects>
        <_>
          10 14 1 6 -1.</_>
        <_>
          10 16 1 2 3.</_></rects>
      <tilted>0</tilted></_>
    <_>
      <rects>
        <_>
          11 4 2 12 -1.</_>
        <_>
          11 10 2 6 2.</_></rects>
      <tilted>0</tilted></_>
    <_>
      <rects>
        <_>
          11 5 6 12 -1.</_>
        <_>
          14 5 3 12 2.</_></rects>
      <tilted>0</tilted></_>
    <_>
      <rects>
        <_>
          11 7 4 6 -1.</_>
        <_>
          13 7 2 6 2.</_></rects>
      <tilted>0</tilted></_>
    <_>
      <rects>
        <_>
          11 8 2 4 -1.</_>
        <_>
          11 10 2 2 2.</_></rects>
      <tilted>0</tilted></_>
    <_>
      <rects>
        <_>
          11 13 8 6 -1.</_>
        <_>
          11 13 4 3 2.</_>
        <_>
          15 16 4 3 2.</_></rects>
      <tilted>0</tilted></_>
    <_>
      <rects>
        <_>
          12 1 4 19 -1.</_>
        <_>
          14 1 2 19 2.</_></rects>
      <tilted>0</tilted></_>
    <_>
      <rects>
        <_>
          12 4 4 8 -1.</_>
        <_>
          12 4 2 4 2.</_>
        <_>
          14 8 2 4 2.</_></rects>
      <tilted>0</tilted></_>
    <_>
      <rects>
        <_>
          12 6 1 9 -1.</_>
        <_>
          12 9 1 3 3.</_></rects>
      <tilted>0</tilted></_>
    <_>
      <rects>
        <_>
          12 7 6 6 -1.</_>
        <_>
          12 9 6 2 3.</_></rects>
      <tilted>0</tilted></_>
    <_>
      <rects>
        <_>
          12 9 4 3 -1.</_>
        <_>
          14 9 2 3 2.</_></rects>
      <tilted>0</tilted></_>
    <_>
      <rects>
        <_>
          13 6 5 6 -1.</_>
        <_>
          13 8 5 2 3.</_></rects>
      <tilted>0</tilted></_>
    <_>
      <rects>
        <_>
          13 9 2 2 -1.</_>
        <_>
          13 9 1 1 2.</_>
        <_>
          14 10 1 1 2.</_></rects>
      <tilted>0</tilted></_>
    <_>
      <rects>
        <_>
          13 9 6 1 -1.</_>
        <_>
          16 9 3 1 2.</_></rects>
      <tilted>0</tilted></_>
    <_>
      <rects>
        <_>
          14 6 5 3 -1.</_>
        <_>
          14 7 5 1 3.</_></rects>
      <tilted>0</tilted></_>
    <_>
      <rects>
        <_>
          14 10 6 1 -1.</_>
        <_>
          16 10 2 1 3.</_></rects>
      <tilted>0</tilted></_>
    <_>
      <rects>
        <_>
          14 14 3 3 -1.</_>
        <_>
          15 14 1 3 3.</_></rects>
      <tilted>0</tilted></_>
    <_>
      <rects>
        <_>
          14 14 4 2 -1.</_>
        <_>
          14 14 2 1 2.</_>
        <_>
          16 15 2 1 2.</_></rects>
      <tilted>0</tilted></_>
    <_>
      <rects>
        <_>
          14 15 3 3 -1.</_>
        <_>
          14 16 3 1 3.</_></rects>
      <tilted>0</tilted></_>
    <_>
      <rects>
        <_>
          14 16 2 1 -1.</_>
        <_>
          15 16 1 1 2.</_></rects>
      <tilted>0</tilted></_>
    <_>
      <rects>
        <_>
          15 4 1 2 -1.</_>
        <_>
          15 5 1 1 2.</_></rects>
      <tilted>0</tilted></_>
    <_>
      <rects>
        <_>
          15 4 3 2 -1.</_>
        <_>
          15 5 3 1 2.</_></rects>
      <tilted>0</tilted></_>
    <_>
      <rects>
        <_>
          15 13 2 3 -1.</_>
        <_>
          15 14 2 1 3.</_></rects>
      <tilted>0</tilted></_>
    <_>
      <rects>
        <_>
          16 3 1 3 -1.</_>
        <_>
          16 4 1 1 3.</_></rects>
      <tilted>0</tilted></_>
    <_>
      <rects>
        <_>
          16 3 3 4 -1.</_>
        <_>
          16 5 3 2 2.</_></rects>
      <tilted>0</tilted></_>
    <_>
      <rects>
        <_>
          16 6 3 2 -1.</_>
        <_>
          16 7 3 1 2.</_></rects>
      <tilted>0</tilted></_>
    <_>
      <rects>
        <_>
          16 14 1 3 -1.</_>
        <_>
          16 15 1 1 3.</_></rects>
      <tilted>0</tilted></_>
    <_>
      <rects>
        <_>
          17 7 1 3 -1.</_>
        <_>
          17 8 1 1 3.</_></rects>
      <tilted>0</tilted></_>
    <_>
      <rects>
        <_>
          17 8 1 3 -1.</_>
        <_>
          17 9 1 1 3.</_></rects>
      <tilted>0</tilted></_>
    <_>
      <rects>
        <_>
          17 9 1 2 -1.</_>
        <_>
          17 10 1 1 2.</_></rects>
      <tilted>0</tilted></_>
    <_>
      <rects>
        <_>
          18 7 2 8 -1.</_>
        <_>
          19 7 1 8 2.</_></rects>
      <tilted>0</tilted></_>
    <_>
      <rects>
        <_>
          18 8 2 5 -1.</_>
        <_>
          19 8 1 5 2.</_></rects>
      <tilted>0</tilted></_></features></cascade>
</opencv_storage>
